<?xml version="1.0"?>
<opencv_storage>
<cascade>
  <stageType>BOOST</stageType>
  <featureType>HAAR</featureType>
  <height>24</height>
  <width>24</width>
  <stageParams>
    <boostType>GAB</boostType>
    <minHitRate>9.9500000476837158e-01</minHitRate>
    <maxFalseAlarm>5.0000000000000000e-01</maxFalseAlarm>
    <weightTrimRate>9.4999998807907104e-01</weightTrimRate>
    <maxDepth>1</maxDepth>
    <maxWeakCount>100</maxWeakCount></stageParams>
  <featureParams>
    <maxCatCount>0</maxCatCount>
    <featSize>1</featSize>
    <mode>BASIC</mode></featureParams>
  <stageNum>25</stageNum>
  <stages>
    <!-- stage 0 -->
    <_>
      <maxWeakCount>4</maxWeakCount>
      <stageThreshold>-8.0428707599639893e-01</stageThreshold>
      <weakClassifiers>
        <_>
          <internalNodes>
            0 -1 6 -2.3347558081150055e-01</internalNodes>
          <leafValues>
            9.6825397014617920e-01 -8.6940300464630127e-01</leafValues></_>
        <_>
          <internalNodes>
            0 -1 44 -3.8258381187915802e-02</internalNodes>
          <leafValues>
            7.6521575450897217e-01 -6.1556822061538696e-01</leafValues></_>
        <_>
          <internalNodes>
            0 -1 133 1.2627918295038398e-05</internalNodes>
          <leafValues>
            3.5139483213424683e-01 -9.9513494968414307e-01</leafValues></_>
        <_>
          <internalNodes>
            0 -1 136 1.2948062249051873e-05</internalNodes>
          <leafValues>
            3.2928931713104248e-01 -9.2927956581115723e-01</leafValues></_></weakClassifiers></_>
    <!-- stage 1 -->
    <_>
      <maxWeakCount>5</maxWeakCount>
      <stageThreshold>-1.6589319705963135e+00</stageThreshold>
      <weakClassifiers>
        <_>
          <internalNodes>
            0 -1 16 -2.5548988580703735e-01</internalNodes>
          <leafValues>
            9.1379308700561523e-01 -8.2417583465576172e-01</leafValues></_>
        <_>
          <internalNodes>
            0 -1 136 -1.1240309504501056e-05</internalNodes>
          <leafValues>
            -8.3455616235733032e-01 5.8116245269775391e-01</leafValues></_>
        <_>
          <internalNodes>
            0 -1 133 -1.0733798262663186e-05</internalNodes>
          <leafValues>
            -7.1388661861419678e-01 5.8537453413009644e-01</leafValues></_>
        <_>
          <internalNodes>
            0 -1 25 -1.8524592451285571e-04</internalNodes>
          <leafValues>
            -9.7157406806945801e-01 3.6463820934295654e-01</leafValues></_>
        <_>
          <internalNodes>
            0 -1 140 1.3694736117031425e-04</internalNodes>
          <leafValues>
            3.4904840588569641e-01 -9.7968286275863647e-01</leafValues></_></weakClassifiers></_>
    <!-- stage 2 -->
    <_>
      <maxWeakCount>3</maxWeakCount>
      <stageThreshold>-1.4360616207122803e+00</stageThreshold>
      <weakClassifiers>
        <_>
          <internalNodes>
            0 -1 15 -2.1702623367309570e-01</internalNodes>
          <leafValues>
            7.7600002288818359e-01 -8.2122904062271118e-01</leafValues></_>
        <_>
          <internalNodes>
            0 -1 140 -3.7200348742771894e-05</internalNodes>
          <leafValues>
            -9.0652585029602051e-01 3.7504810094833374e-01</leafValues></_>
        <_>
          <internalNodes>
            0 -1 26 -1.6668980242684484e-04</internalNodes>
          <leafValues>
            -1. 2.9169330000877380e-01</leafValues></_></weakClassifiers></_>
    <!-- stage 3 -->
    <_>
      <maxWeakCount>4</maxWeakCount>
      <stageThreshold>-8.2369709014892578e-01</stageThreshold>
      <weakClassifiers>
        <_>
          <internalNodes>
            0 -1 26 1.4019114314578474e-04</internalNodes>
          <leafValues>
            5.7055217027664185e-01 -8.7575149536132813e-01</leafValues></_>
        <_>
          <internalNodes>
            0 -1 14 -3.2689809799194336e-01</internalNodes>
          <leafValues>
            8.6864745616912842e-01 -6.4011365175247192e-01</leafValues></_>
        <_>
          <internalNodes>
            0 -1 135 1.3438554560707416e-05</internalNodes>
          <leafValues>
            3.8588330149650574e-01 -8.9450961351394653e-01</leafValues></_>
        <_>
          <internalNodes>
            0 -1 132 -2.1340059174690396e-04</internalNodes>
          <leafValues>
            -9.3124520778656006e-01 3.0628475546836853e-01</leafValues></_></weakClassifiers></_>
    <!-- stage 4 -->
    <_>
      <maxWeakCount>4</maxWeakCount>
      <stageThreshold>-1.1597647666931152e+00</stageThreshold>
      <weakClassifiers>
        <_>
          <internalNodes>
            0 -1 135 -1.2328835509833880e-05</internalNodes>
          <leafValues>
            -8.9177489280700684e-01 3.4000000357627869e-01</leafValues></_>
        <_>
          <internalNodes>
            0 -1 132 1.1542823813215364e-05</internalNodes>
          <leafValues>
            4.2225876450538635e-01 -7.8329253196716309e-01</leafValues></_>
        <_>
          <internalNodes>
            0 -1 134 3.4602516097947955e-04</internalNodes>
          <leafValues>
            3.1130447983741760e-01 -9.5357769727706909e-01</leafValues></_>
        <_>
          <internalNodes>
            0 -1 66 -4.9064270569942892e-05</internalNodes>
          <leafValues>
            -9.8272371292114258e-01 2.6332911849021912e-01</leafValues></_></weakClassifiers></_>
    <!-- stage 5 -->
    <_>
      <maxWeakCount>4</maxWeakCount>
      <stageThreshold>-8.0063986778259277e-01</stageThreshold>
      <weakClassifiers>
        <_>
          <internalNodes>
            0 -1 63 -2.0770511031150818e-01</internalNodes>
          <leafValues>
            7.8021979331970215e-01 -7.2679507732391357e-01</leafValues></_>
        <_>
          <internalNodes>
            0 -1 32 -1.6786265373229980e-01</internalNodes>
          <leafValues>
            6.0099714994430542e-01 -5.6153643131256104e-01</leafValues></_>
        <_>
          <internalNodes>
            0 -1 143 1.0209567335550673e-05</internalNodes>
          <leafValues>
            3.0251580476760864e-01 -9.8370260000228882e-01</leafValues></_>
        <_>
          <internalNodes>
            0 -1 141 -2.5847606593742967e-04</internalNodes>
          <leafValues>
            -9.7735774517059326e-01 3.0906963348388672e-01</leafValues></_></weakClassifiers></_>
    <!-- stage 6 -->
    <_>
      <maxWeakCount>4</maxWeakCount>
      <stageThreshold>-1.0882806777954102e+00</stageThreshold>
      <weakClassifiers>
        <_>
          <internalNodes>
            0 -1 93 3.5433731973171234e-02</internalNodes>
          <leafValues>
            -7.5680583715438843e-01 6.5765768289566040e-01</leafValues></_>
        <_>
          <internalNodes>
            0 -1 141 3.4140399657189846e-04</internalNodes>
          <leafValues>
            4.1133648157119751e-01 -8.4132647514343262e-01</leafValues></_>
        <_>
          <internalNodes>
            0 -1 130 -1.2311811588006094e-05</internalNodes>
          <leafValues>
            -8.7091529369354248e-01 2.7394786477088928e-01</leafValues></_>
        <_>
          <internalNodes>
            0 -1 111 -9.0956446001655422e-06</internalNodes>
          <leafValues>
            -9.3909960985183716e-01 2.3590375483036041e-01</leafValues></_></weakClassifiers></_>
    <!-- stage 7 -->
    <_>
      <maxWeakCount>4</maxWeakCount>
      <stageThreshold>-1.4232498407363892e+00</stageThreshold>
      <weakClassifiers>
        <_>
          <internalNodes>
            0 -1 31 -4.4647690653800964e-01</internalNodes>
          <leafValues>
            7.5925928354263306e-01 -7.6895308494567871e-01</leafValues></_>
        <_>
          <internalNodes>
            0 -1 125 6.7462157458066940e-03</internalNodes>
          <leafValues>
            -7.1510773897171021e-01 3.6676540970802307e-01</leafValues></_>
        <_>
          <internalNodes>
            0 -1 71 1.8313612090423703e-03</internalNodes>
          <leafValues>
            -5.0059270858764648e-01 5.9228342771530151e-01</leafValues></_>
        <_>
          <internalNodes>
            0 -1 82 -2.7513233944773674e-02</internalNodes>
          <leafValues>
            5.6140369176864624e-01 -4.2035087943077087e-01</leafValues></_></weakClassifiers></_>
    <!-- stage 8 -->
    <_>
      <maxWeakCount>7</maxWeakCount>
      <stageThreshold>-1.8471970558166504e+00</stageThreshold>
      <weakClassifiers>
        <_>
          <internalNodes>
            0 -1 50 -2.1996060013771057e-01</internalNodes>
          <leafValues>
            8.0000001192092896e-01 -7.2727274894714355e-01</leafValues></_>
        <_>
          <internalNodes>
            0 -1 2 -4.4641606509685516e-02</internalNodes>
          <leafValues>
            2.8892230987548828e-01 -6.2125313282012939e-01</leafValues></_>
        <_>
          <internalNodes>
            0 -1 5 9.9717026387224905e-06</internalNodes>
          <leafValues>
            2.0900472998619080e-01 -9.5581108331680298e-01</leafValues></_>
        <_>
          <internalNodes>
            0 -1 129 -1.0600965651974548e-05</internalNodes>
          <leafValues>
            -7.8196150064468384e-01 2.4687503278255463e-01</leafValues></_>
        <_>
          <internalNodes>
            0 -1 22 -9.4884062491473742e-06</internalNodes>
          <leafValues>
            -8.4840476512908936e-01 1.8643851578235626e-01</leafValues></_>
        <_>
          <internalNodes>
            0 -1 115 2.8514838777482510e-03</internalNodes>
          <leafValues>
            -3.7404882907867432e-01 5.3120619058609009e-01</leafValues></_>
        <_>
          <internalNodes>
            0 -1 8 1.1631664165179245e-05</internalNodes>
          <leafValues>
            2.6189583539962769e-01 -7.8602498769760132e-01</leafValues></_></weakClassifiers></_>
    <!-- stage 9 -->
    <_>
      <maxWeakCount>4</maxWeakCount>
      <stageThreshold>-1.3051275014877319e+00</stageThreshold>
      <weakClassifiers>
        <_>
          <internalNodes>
            0 -1 37 9.3443453311920166e-02</internalNodes>
          <leafValues>
            -8.5714286565780640e-01 1.2280701845884323e-01</leafValues></_>
        <_>
          <internalNodes>
            0 -1 144 -1.2811337910534348e-05</internalNodes>
          <leafValues>
            -8.5379141569137573e-01 1.9738543033599854e-01</leafValues></_>
        <_>
          <internalNodes>
            0 -1 121 -1.6342714661732316e-04</internalNodes>
          <leafValues>
            -9.0596526861190796e-01 2.5224721431732178e-01</leafValues></_>
        <_>
          <internalNodes>
            0 -1 54 -7.1215225034393370e-05</internalNodes>
          <leafValues>
            -7.7956485748291016e-01 2.6059520244598389e-01</leafValues></_></weakClassifiers></_>
    <!-- stage 10 -->
    <_>
      <maxWeakCount>4</maxWeakCount>
      <stageThreshold>-1.4979510307312012e+00</stageThreshold>
      <weakClassifiers>
        <_>
          <internalNodes>
            0 -1 96 6.7884281277656555e-02</internalNodes>
          <leafValues>
            -9.0366089344024658e-01 8.7412589788436890e-01</leafValues></_>
        <_>
          <internalNodes>
            0 -1 99 1.6923148359637707e-04</internalNodes>
          <leafValues>
            -7.1100354194641113e-01 7.1389973163604736e-01</leafValues></_>
        <_>
          <internalNodes>
            0 -1 98 1.0849027603399009e-05</internalNodes>
          <leafValues>
            -5.5116832256317139e-01 7.9017537832260132e-01</leafValues></_>
        <_>
          <internalNodes>
            0 -1 114 1.3238935207482427e-04</internalNodes>
          <leafValues>
            -6.7346197366714478e-01 7.5799739360809326e-01</leafValues></_></weakClassifiers></_>
    <!-- stage 11 -->
    <_>
      <maxWeakCount>4</maxWeakCount>
      <stageThreshold>-1.3559175729751587e+00</stageThreshold>
      <weakClassifiers>
        <_>
          <internalNodes>
            0 -1 80 1.4541286230087280e-01</internalNodes>
          <leafValues>
            -7.8456014394760132e-01 8.8571429252624512e-01</leafValues></_>
        <_>
          <internalNodes>
            0 -1 83 1.1110349441878498e-04</internalNodes>
          <leafValues>
            -7.4591535329818726e-01 4.2576956748962402e-01</leafValues></_>
        <_>
          <internalNodes>
            0 -1 104 -3.9119528082665056e-05</internalNodes>
          <leafValues>
            7.0031917095184326e-01 -4.9554452300071716e-01</leafValues></_>
        <_>
          <internalNodes>
            0 -1 85 -3.3126118069048971e-05</internalNodes>
          <leafValues>
            6.7010241746902466e-01 -4.3759703636169434e-01</leafValues></_></weakClassifiers></_>
    <!-- stage 12 -->
    <_>
      <maxWeakCount>4</maxWeakCount>
      <stageThreshold>-1.4266157150268555e+00</stageThreshold>
      <weakClassifiers>
        <_>
          <internalNodes>
            0 -1 7 -6.1965292692184448e-01</internalNodes>
          <leafValues>
            8.1632655858993530e-01 -7.5177305936813354e-01</leafValues></_>
        <_>
          <internalNodes>
            0 -1 127 1.0757354175439104e-04</internalNodes>
          <leafValues>
            -6.2101417779922485e-01 6.1093378067016602e-01</leafValues></_>
        <_>
          <internalNodes>
            0 -1 88 -1.1727692253771238e-05</internalNodes>
          <leafValues>
            5.7346820831298828e-01 -6.5562999248504639e-01</leafValues></_>
        <_>
          <internalNodes>
            0 -1 77 3.2957585062831640e-05</internalNodes>
          <leafValues>
            -4.6984770894050598e-01 6.0180151462554932e-01</leafValues></_></weakClassifiers></_>
    <!-- stage 13 -->
    <_>
      <maxWeakCount>6</maxWeakCount>
      <stageThreshold>-1.4496235847473145e+00</stageThreshold>
      <weakClassifiers>
        <_>
          <internalNodes>
            0 -1 12 -3.7227690219879150e-01</internalNodes>
          <leafValues>
            6.1467891931533813e-01 -7.4321877956390381e-01</leafValues></_>
        <_>
          <internalNodes>
            0 -1 17 -1.1308628600090742e-03</internalNodes>
          <leafValues>
            -9.3805485963821411e-01 1.7070323228836060e-01</leafValues></_>
        <_>
          <internalNodes>
            0 -1 118 1.3045461382716894e-03</internalNodes>
          <leafValues>
            1.3366217911243439e-01 -9.8885852098464966e-01</leafValues></_>
        <_>
          <internalNodes>
            0 -1 109 5.0427228416083381e-05</internalNodes>
          <leafValues>
            -4.0905800461769104e-01 5.2515631914138794e-01</leafValues></_>
        <_>
          <internalNodes>
            0 -1 11 -1.1560756247490644e-03</internalNodes>
          <leafValues>
            -7.8474557399749756e-01 2.6434949040412903e-01</leafValues></_>
        <_>
          <internalNodes>
            0 -1 27 6.5210871398448944e-03</internalNodes>
          <leafValues>
            2.4269637465476990e-01 -8.3018434047698975e-01</leafValues></_></weakClassifiers></_>
    <!-- stage 14 -->
    <_>
      <maxWeakCount>5</maxWeakCount>
      <stageThreshold>-1.3013886213302612e+00</stageThreshold>
      <weakClassifiers>
        <_>
          <internalNodes>
            0 -1 41 -5.0368571281433105e-01</internalNodes>
          <leafValues>
            8.7096774578094482e-01 -7.4692440032958984e-01</leafValues></_>
        <_>
          <internalNodes>
            0 -1 20 -1.5428429469466209e-04</internalNodes>
          <leafValues>
            2.6854515075683594e-01 -8.2038426399230957e-01</leafValues></_>
        <_>
          <internalNodes>
            0 -1 9 5.8615840971469879e-03</internalNodes>
          <leafValues>
            2.0641113817691803e-01 -9.3728899955749512e-01</leafValues></_>
        <_>
          <internalNodes>
            0 -1 74 3.8594094803556800e-05</internalNodes>
          <leafValues>
            -4.1208001971244812e-01 6.8326014280319214e-01</leafValues></_>
        <_>
          <internalNodes>
            0 -1 62 1.0804588237078860e-04</internalNodes>
          <leafValues>
            -4.8299011588096619e-01 4.7158899903297424e-01</leafValues></_></weakClassifiers></_>
    <!-- stage 15 -->
    <_>
      <maxWeakCount>7</maxWeakCount>
      <stageThreshold>-1.2645300626754761e+00</stageThreshold>
      <weakClassifiers>
        <_>
          <internalNodes>
            0 -1 86 -8.3016164600849152e-02</internalNodes>
          <leafValues>
            6.5909093618392944e-01 -7.0034843683242798e-01</leafValues></_>
        <_>
          <internalNodes>
            0 -1 100 7.0654740557074547e-04</internalNodes>
          <leafValues>
            -3.7127986550331116e-01 5.3808408975601196e-01</leafValues></_>
        <_>
          <internalNodes>
            0 -1 18 2.0589525811374187e-03</internalNodes>
          <leafValues>
            -6.7659389972686768e-01 2.8456804156303406e-01</leafValues></_>
        <_>
          <internalNodes>
            0 -1 137 1.3956900220364332e-03</internalNodes>
          <leafValues>
            2.0439928770065308e-01 -7.9841285943984985e-01</leafValues></_>
        <_>
          <internalNodes>
            0 -1 47 8.7270811200141907e-03</internalNodes>
          <leafValues>
            -4.5508101582527161e-01 3.7907022237777710e-01</leafValues></_>
        <_>
          <internalNodes>
            0 -1 105 -7.5276926509104669e-05</internalNodes>
          <leafValues>
            6.5175247192382813e-01 -2.5214052200317383e-01</leafValues></_>
        <_>
          <internalNodes>
            0 -1 4 -7.5723677873611450e-03</internalNodes>
          <leafValues>
            -9.2110478878021240e-01 1.9401340186595917e-01</leafValues></_></weakClassifiers></_>
    <!-- stage 16 -->
    <_>
      <maxWeakCount>6</maxWeakCount>
      <stageThreshold>-1.4461164474487305e+00</stageThreshold>
      <weakClassifiers>
        <_>
          <internalNodes>
            0 -1 40 -8.5949435830116272e-02</internalNodes>
          <leafValues>
            3.8931298255920410e-01 -7.4387949705123901e-01</leafValues></_>
        <_>
          <internalNodes>
            0 -1 87 2.6049260050058365e-02</internalNodes>
          <leafValues>
            -4.4307807087898254e-01 5.6190913915634155e-01</leafValues></_>
        <_>
          <internalNodes>
            0 -1 73 8.2415528595447540e-03</internalNodes>
          <leafValues>
            -3.7808567285537720e-01 6.1204755306243896e-01</leafValues></_>
        <_>
          <internalNodes>
            0 -1 39 2.7123175095766783e-03</internalNodes>
          <leafValues>
            2.6433834433555603e-01 -6.9820153713226318e-01</leafValues></_>
        <_>
          <internalNodes>
            0 -1 110 5.7907914742827415e-04</internalNodes>
          <leafValues>
            -3.7229138612747192e-01 5.4846101999282837e-01</leafValues></_>
        <_>
          <internalNodes>
            0 -1 48 -6.8278731778264046e-03</internalNodes>
          <leafValues>
            -9.5596975088119507e-01 2.2687980532646179e-01</leafValues></_></weakClassifiers></_>
    <!-- stage 17 -->
    <_>
      <maxWeakCount>11</maxWeakCount>
      <stageThreshold>-1.6548947095870972e+00</stageThreshold>
      <weakClassifiers>
        <_>
          <internalNodes>
            0 -1 13 -3.2498520612716675e-01</internalNodes>
          <leafValues>
            4.6666666865348816e-01 -6.7482519149780273e-01</leafValues></_>
        <_>
          <internalNodes>
            0 -1 139 -3.8324033084791154e-05</internalNodes>
          <leafValues>
            -6.1082267761230469e-01 2.0185486972332001e-01</leafValues></_>
        <_>
          <internalNodes>
            0 -1 113 1.8940825015306473e-02</internalNodes>
          <leafValues>
            -3.5753253102302551e-01 4.0289765596389771e-01</leafValues></_>
        <_>
          <internalNodes>
            0 -1 103 3.0430094338953495e-03</internalNodes>
          <leafValues>
            2.0636968314647675e-01 -7.0517843961715698e-01</leafValues></_>
        <_>
          <internalNodes>
            0 -1 106 8.6498574819415808e-04</internalNodes>
          <leafValues>
            -7.0308613777160645e-01 1.8891963362693787e-01</leafValues></_>
        <_>
          <internalNodes>
            0 -1 43 2.6270775124430656e-03</internalNodes>
          <leafValues>
            2.2503735125064850e-01 -5.8139187097549438e-01</leafValues></_>
        <_>
          <internalNodes>
            0 -1 10 -4.6729709953069687e-02</internalNodes>
          <leafValues>
            5.7647776603698730e-01 -2.1770547330379486e-01</leafValues></_>
        <_>
          <internalNodes>
            0 -1 36 -5.9391188621520996e-01</internalNodes>
          <leafValues>
            7.1193456649780273e-01 -2.1539857983589172e-01</leafValues></_>
        <_>
          <internalNodes>
            0 -1 64 1.4825286343693733e-02</internalNodes>
          <leafValues>
            -3.2815650105476379e-01 3.9483949542045593e-01</leafValues></_>
        <_>
          <internalNodes>
            0 -1 122 -1.3827326474711299e-03</internalNodes>
          <leafValues>
            -8.9475089311599731e-01 1.5118254721164703e-01</leafValues></_>
        <_>
          <internalNodes>
            0 -1 38 1.2907304335385561e-04</internalNodes>
          <leafValues>
            1.0336422175168991e-01 -8.9047747850418091e-01</leafValues></_></weakClassifiers></_>
    <!-- stage 18 -->
    <_>
      <maxWeakCount>7</maxWeakCount>
      <stageThreshold>-9.0167415142059326e-01</stageThreshold>
      <weakClassifiers>
        <_>
          <internalNodes>
            0 -1 76 -2.1679955720901489e-01</internalNodes>
          <leafValues>
            4.2268040776252747e-01 -6.8141591548919678e-01</leafValues></_>
        <_>
          <internalNodes>
            0 -1 68 3.8974168710410595e-03</internalNodes>
          <leafValues>
            -3.5008186101913452e-01 5.7074195146560669e-01</leafValues></_>
        <_>
          <internalNodes>
            0 -1 124 1.5997141599655151e-02</internalNodes>
          <leafValues>
            -4.6975281834602356e-01 3.3011052012443542e-01</leafValues></_>
        <_>
          <internalNodes>
            0 -1 28 3.5300371237099171e-03</internalNodes>
          <leafValues>
            2.1584481000900269e-01 -6.3427305221557617e-01</leafValues></_>
        <_>
          <internalNodes>
            0 -1 107 3.8959310040809214e-04</internalNodes>
          <leafValues>
            -3.1704735755920410e-01 5.1939946413040161e-01</leafValues></_>
        <_>
          <internalNodes>
            0 -1 117 1.5244176029227674e-04</internalNodes>
          <leafValues>
            3.3013510704040527e-01 -4.2152428627014160e-01</leafValues></_>
        <_>
          <internalNodes>
            0 -1 89 -2.3291712568607181e-04</internalNodes>
          <leafValues>
            4.2089840769767761e-01 -3.7951499223709106e-01</leafValues></_></weakClassifiers></_>
    <!-- stage 19 -->
    <_>
      <maxWeakCount>8</maxWeakCount>
      <stageThreshold>-1.4646587371826172e+00</stageThreshold>
      <weakClassifiers>
        <_>
          <internalNodes>
            0 -1 30 -4.7253382205963135e-01</internalNodes>
          <leafValues>
            3.4426230192184448e-01 -7.1481484174728394e-01</leafValues></_>
        <_>
          <internalNodes>
            0 -1 46 2.2988663986325264e-03</internalNodes>
          <leafValues>
            -4.5946681499481201e-01 2.1411517262458801e-01</leafValues></_>
        <_>
          <internalNodes>
            0 -1 24 -1.0493162553757429e-03</internalNodes>
          <leafValues>
            -8.9016008377075195e-01 1.1619585752487183e-01</leafValues></_>
        <_>
          <internalNodes>
            0 -1 138 -1.2327384203672409e-02</internalNodes>
          <leafValues>
            -9.3620449304580688e-01 1.2310907244682312e-01</leafValues></_>
        <_>
          <internalNodes>
            0 -1 97 -2.1673997980542481e-04</internalNodes>
          <leafValues>
            3.2082444429397583e-01 -3.7531954050064087e-01</leafValues></_>
        <_>
          <internalNodes>
            0 -1 72 6.1313978221733123e-05</internalNodes>
          <leafValues>
            -3.3179256319999695e-01 3.6388194561004639e-01</leafValues></_>
        <_>
          <internalNodes>
            0 -1 57 3.7820192519575357e-03</internalNodes>
          <leafValues>
            -2.9012838006019592e-01 4.4292020797729492e-01</leafValues></_>
        <_>
          <internalNodes>
            0 -1 101 1.8736502155661583e-02</internalNodes>
          <leafValues>
            -2.6549017429351807e-01 5.1753431558609009e-01</leafValues></_></weakClassifiers></_>
    <!-- stage 20 -->
    <_>
      <maxWeakCount>8</maxWeakCount>
      <stageThreshold>-1.3410105705261230e+00</stageThreshold>
      <weakClassifiers>
        <_>
          <internalNodes>
            0 -1 67 -1.6268859803676605e-01</internalNodes>
          <leafValues>
            3.2773110270500183e-01 -7.0534068346023560e-01</leafValues></_>
        <_>
          <internalNodes>
            0 -1 91 -1.6294631641358137e-03</internalNodes>
          <leafValues>
            6.6111695766448975e-01 -2.6382261514663696e-01</leafValues></_>
        <_>
          <internalNodes>
            0 -1 59 -1.7786040902137756e-01</internalNodes>
          <leafValues>
            7.6364135742187500e-01 -1.8925397098064423e-01</leafValues></_>
        <_>
          <internalNodes>
            0 -1 45 8.8833522750064731e-04</internalNodes>
          <leafValues>
            -4.5558783411979675e-01 3.4305584430694580e-01</leafValues></_>
        <_>
          <internalNodes>
            0 -1 123 1.1728112585842609e-03</internalNodes>
          <leafValues>
            1.4067897200584412e-01 -8.2254785299301147e-01</leafValues></_>
        <_>
          <internalNodes>
            0 -1 29 -1.8967678770422935e-02</internalNodes>
          <leafValues>
            3.1650650501251221e-01 -3.4163668751716614e-01</leafValues></_>
        <_>
          <internalNodes>
            0 -1 112 3.7054151296615601e-02</internalNodes>
          <leafValues>
            -2.3144613206386566e-01 6.6898185014724731e-01</leafValues></_>
        <_>
          <internalNodes>
            0 -1 1 -1.9254285143688321e-04</internalNodes>
          <leafValues>
            -7.5138849020004272e-01 2.0431868731975555e-01</leafValues></_></weakClassifiers></_>
    <!-- stage 21 -->
    <_>
      <maxWeakCount>11</maxWeakCount>
      <stageThreshold>-1.4334398508071899e+00</stageThreshold>
      <weakClassifiers>
        <_>
          <internalNodes>
            0 -1 92 2.2686113417148590e-01</internalNodes>
          <leafValues>
            -6.8342643976211548e-01 1.8400000035762787e-01</leafValues></_>
        <_>
          <internalNodes>
            0 -1 61 3.4458942711353302e-02</internalNodes>
          <leafValues>
            -5.8657723665237427e-01 1.3335210084915161e-01</leafValues></_>
        <_>
          <internalNodes>
            0 -1 0 1.6619879170320928e-04</internalNodes>
          <leafValues>
            1.0570686310529709e-01 -8.4383302927017212e-01</leafValues></_>
        <_>
          <internalNodes>
            0 -1 33 -2.2599272779189050e-04</internalNodes>
          <leafValues>
            4.3426203727722168e-01 -2.6249334216117859e-01</leafValues></_>
        <_>
          <internalNodes>
            0 -1 142 6.1843532603234053e-04</internalNodes>
          <leafValues>
            1.0291279107332230e-01 -8.4192836284637451e-01</leafValues></_>
        <_>
          <internalNodes>
            0 -1 58 1.5396818518638611e-01</internalNodes>
          <leafValues>
            -1.5943773090839386e-01 7.6182961463928223e-01</leafValues></_>
        <_>
          <internalNodes>
            0 -1 116 1.9734404049813747e-03</internalNodes>
          <leafValues>
            -2.6400330662727356e-01 4.1563168168067932e-01</leafValues></_>
        <_>
          <internalNodes>
            0 -1 35 -2.5844925642013550e-01</internalNodes>
          <leafValues>
            6.8583637475967407e-01 -1.7289499938488007e-01</leafValues></_>
        <_>
          <internalNodes>
            0 -1 60 8.6437771096825600e-04</internalNodes>
          <leafValues>
            -3.0531403422355652e-01 3.6524277925491333e-01</leafValues></_>
        <_>
          <internalNodes>
            0 -1 23 3.3490345231257379e-05</internalNodes>
          <leafValues>
            1.7945735156536102e-01 -7.9257279634475708e-01</leafValues></_>
        <_>
          <internalNodes>
            0 -1 84 3.7257256917655468e-04</internalNodes>
          <leafValues>
            -2.4610117077827454e-01 5.3764045238494873e-01</leafValues></_></weakClassifiers></_>
    <!-- stage 22 -->
    <_>
      <maxWeakCount>9</maxWeakCount>
      <stageThreshold>-1.1387400627136230e+00</stageThreshold>
      <weakClassifiers>
        <_>
          <internalNodes>
            0 -1 90 1.5466715209186077e-02</internalNodes>
          <leafValues>
            -6.3945579528808594e-01 4.3243244290351868e-01</leafValues></_>
        <_>
          <internalNodes>
            0 -1 55 3.1938441097736359e-03</internalNodes>
          <leafValues>
            -4.0002185106277466e-01 2.3546560108661652e-01</leafValues></_>
        <_>
          <internalNodes>
            0 -1 79 2.8999904170632362e-03</internalNodes>
          <leafValues>
            1.2513631582260132e-01 -8.0770617723464966e-01</leafValues></_>
        <_>
          <internalNodes>
            0 -1 65 1.2041293302900158e-05</internalNodes>
          <leafValues>
            -3.2616436481475830e-01 3.2014268636703491e-01</leafValues></_>
        <_>
          <internalNodes>
            0 -1 3 1.1572974472073838e-05</internalNodes>
          <leafValues>
            1.5406523644924164e-01 -7.4869954586029053e-01</leafValues></_>
        <_>
          <internalNodes>
            0 -1 95 3.5258672141935676e-05</internalNodes>
          <leafValues>
            -3.1681433320045471e-01 3.4002500772476196e-01</leafValues></_>
        <_>
          <internalNodes>
            0 -1 56 -4.6934187412261963e-02</internalNodes>
          <leafValues>
            -8.6008316278457642e-01 1.3013669848442078e-01</leafValues></_>
        <_>
          <internalNodes>
            0 -1 21 1.2670678552240133e-04</internalNodes>
          <leafValues>
            9.5480158925056458e-02 -8.2114541530609131e-01</leafValues></_>
        <_>
          <internalNodes>
            0 -1 119 3.8827769458293915e-04</internalNodes>
          <leafValues>
            -2.7402868866920471e-01 3.5595980286598206e-01</leafValues></_></weakClassifiers></_>
    <!-- stage 23 -->
    <_>
      <maxWeakCount>9</maxWeakCount>
      <stageThreshold>-1.0915247201919556e+00</stageThreshold>
      <weakClassifiers>
        <_>
          <internalNodes>
            0 -1 53 -1.1282080784440041e-02</internalNodes>
          <leafValues>
            2.6732674241065979e-01 -6.6131907701492310e-01</leafValues></_>
        <_>
          <internalNodes>
            0 -1 69 2.0837947726249695e-01</internalNodes>
          <leafValues>
            -3.9622741937637329e-01 2.7980276942253113e-01</leafValues></_>
        <_>
          <internalNodes>
            0 -1 128 -2.2956471890211105e-02</internalNodes>
          <leafValues>
            7.6636981964111328e-01 -1.5532143414020538e-01</leafValues></_>
        <_>
          <internalNodes>
            0 -1 19 1.1452031321823597e-04</internalNodes>
          <leafValues>
            1.6287466883659363e-01 -7.2252213954925537e-01</leafValues></_>
        <_>
          <internalNodes>
            0 -1 78 5.5326865985989571e-03</internalNodes>
          <leafValues>
            1.3027791678905487e-01 -1.</leafValues></_>
        <_>
          <internalNodes>
            0 -1 120 6.0529331676661968e-04</internalNodes>
          <leafValues>
            -1.7095220088958740e-01 7.3224675655364990e-01</leafValues></_>
        <_>
          <internalNodes>
            0 -1 126 1.0356486018281430e-04</internalNodes>
          <leafValues>
            2.2053602337837219e-01 -5.7409805059432983e-01</leafValues></_>
        <_>
          <internalNodes>
            0 -1 104 -3.6501372960628942e-05</internalNodes>
          <leafValues>
            3.5654425621032715e-01 -3.0671289563179016e-01</leafValues></_>
        <_>
          <internalNodes>
            0 -1 49 4.0790037019178271e-05</internalNodes>
          <leafValues>
            2.0392356812953949e-01 -5.4446667432785034e-01</leafValues></_></weakClassifiers></_>
    <!-- stage 24 -->
    <_>
      <maxWeakCount>11</maxWeakCount>
      <stageThreshold>-1.4009501934051514e+00</stageThreshold>
      <weakClassifiers>
        <_>
          <internalNodes>
            0 -1 102 -2.0613032393157482e-03</internalNodes>
          <leafValues>
            4.6031746268272400e-01 -6.2270450592041016e-01</leafValues></_>
        <_>
          <internalNodes>
            0 -1 34 -6.3932231569197029e-05</internalNodes>
          <leafValues>
            3.0202999711036682e-01 -4.1473972797393799e-01</leafValues></_>
        <_>
          <internalNodes>
            0 -1 51 1.8559712171554565e-01</internalNodes>
          <leafValues>
            1.2312918901443481e-01 -9.3981343507766724e-01</leafValues></_>
        <_>
          <internalNodes>
            0 -1 94 -2.2911473643034697e-03</internalNodes>
          <leafValues>
            2.0278243720531464e-01 -6.3691055774688721e-01</leafValues></_>
        <_>
          <internalNodes>
            0 -1 131 -1.1259789062023629e-05</internalNodes>
          <leafValues>
            -7.7428323030471802e-01 1.1761800944805145e-01</leafValues></_>
        <_>
          <internalNodes>
            0 -1 108 4.7991024330258369e-03</internalNodes>
          <leafValues>
            -2.9613617062568665e-01 4.2051213979721069e-01</leafValues></_>
        <_>
          <internalNodes>
            0 -1 70 -1.0740617290139198e-02</internalNodes>
          <leafValues>
            5.7570689916610718e-01 -2.3718442022800446e-01</leafValues></_>
        <_>
          <internalNodes>
            0 -1 42 2.5869442149996758e-02</internalNodes>
          <leafValues>
            -3.1742259860038757e-01 4.6720126271247864e-01</leafValues></_>
        <_>
          <internalNodes>
            0 -1 81 -8.3629982545971870e-03</internalNodes>
          <leafValues>
            3.6209747195243835e-01 -2.9520529508590698e-01</leafValues></_>
        <_>
          <internalNodes>
            0 -1 52 1.5135124158405233e-05</internalNodes>
          <leafValues>
            1.6543456912040710e-01 -6.8803721666336060e-01</leafValues></_>
        <_>
          <internalNodes>
            0 -1 75 3.8265552575467154e-05</internalNodes>
          <leafValues>
            -2.8819179534912109e-01 3.9807531237602234e-01</leafValues></_></weakClassifiers></_></stages>
  <features>
    <_>
      <rects>
        <_>
          0 0 1 10 -1.</_>
        <_>
          0 5 1 5 2.</_></rects>
      <tilted>0</tilted></_>
    <_>
      <rects>
        <_>
          0 0 1 15 -1.</_>
        <_>
          0 5 1 5 3.</_></rects>
      <tilted>0</tilted></_>
    <_>
      <rects>
        <_>
          0 0 10 17 -1.</_>
        <_>
          5 0 5 17 2.</_></rects>
      <tilted>0</tilted></_>
    <_>
      <rects>
        <_>
          0 0 9 2 -1.</_>
        <_>
          0 1 9 1 2.</_></rects>
      <tilted>0</tilted></_>
    <_>
      <rects>
        <_>
          0 0 22 1 -1.</_>
        <_>
          11 0 11 1 2.</_></rects>
      <tilted>0</tilted></_>
    <_>
      <rects>
        <_>
          0 1 1 4 -1.</_>
        <_>
          0 3 1 2 2.</_></rects>
      <tilted>0</tilted></_>
    <_>
      <rects>
        <_>
          0 2 21 15 -1.</_>
        <_>
          7 2 7 15 3.</_></rects>
      <tilted>0</tilted></_>
    <_>
      <rects>
        <_>
          0 2 24 18 -1.</_>
        <_>
          8 2 8 18 3.</_></rects>
      <tilted>0</tilted></_>
    <_>
      <rects>
        <_>
          0 3 1 16 -1.</_>
        <_>
          0 11 1 8 2.</_></rects>
      <tilted>0</tilted></_>
    <_>
      <rects>
        <_>
          0 3 3 15 -1.</_>
        <_>
          0 8 3 5 3.</_></rects>
      <tilted>0</tilted></_>
    <_>
      <rects>
        <_>
          0 3 12 10 -1.</_>
        <_>
          4 3 4 10 3.</_></rects>
      <tilted>0</tilted></_>
    <_>
      <rects>
        <_>
          0 4 1 15 -1.</_>
        <_>
          0 9 1 5 3.</_></rects>
      <tilted>0</tilted></_>
    <_>
      <rects>
        <_>
          0 5 21 11 -1.</_>
        <_>
          7 5 7 11 3.</_></rects>
      <tilted>0</tilted></_>
    <_>
      <rects>
        <_>
          0 5 24 6 -1.</_>
        <_>
          8 5 8 6 3.</_></rects>
      <tilted>0</tilted></_>
    <_>
      <rects>
        <_>
          0 6 24 9 -1.</_>
        <_>
          8 6 8 9 3.</_></rects>
      <tilted>0</tilted></_>
    <_>
      <rects>
        <_>
          0 7 21 8 -1.</_>
        <_>
          7 7 7 8 3.</_></rects>
      <tilted>0</tilted></_>
    <_>
      <rects>
        <_>
          0 7 24 8 -1.</_>
        <_>
          8 7 8 8 3.</_></rects>
      <tilted>0</tilted></_>
    <_>
      <rects>
        <_>
          0 9 1 15 -1.</_>
        <_>
          0 14 1 5 3.</_></rects>
      <tilted>0</tilted></_>
    <_>
      <rects>
        <_>
          0 9 14 8 -1.</_>
        <_>
          0 9 7 4 2.</_>
        <_>
          7 13 7 4 2.</_></rects>
      <tilted>0</tilted></_>
    <_>
      <rects>
        <_>
          0 10 1 10 -1.</_>
        <_>
          0 15 1 5 2.</_></rects>
      <tilted>0</tilted></_>
    <_>
      <rects>
        <_>
          0 10 12 1 -1.</_>
        <_>
          6 10 6 1 2.</_></rects>
      <tilted>0</tilted></_>
    <_>
      <rects>
        <_>
          0 15 1 6 -1.</_>
        <_>
          0 17 1 2 3.</_></rects>
      <tilted>0</tilted></_>
    <_>
      <rects>
        <_>
          0 16 2 4 -1.</_>
        <_>
          0 16 1 2 2.</_>
        <_>
          1 18 1 2 2.</_></rects>
      <tilted>0</tilted></_>
    <_>
      <rects>
        <_>
          0 16 2 8 -1.</_>
        <_>
          0 20 2 4 2.</_></rects>
      <tilted>0</tilted></_>
    <_>
      <rects>
        <_>
          0 18 10 6 -1.</_>
        <_>
          0 18 5 3 2.</_>
        <_>
          5 21 5 3 2.</_></rects>
      <tilted>0</tilted></_>
    <_>
      <rects>
        <_>
          0 20 4 2 -1.</_>
        <_>
          0 20 2 1 2.</_>
        <_>
          2 21 2 1 2.</_></rects>
      <tilted>0</tilted></_>
    <_>
      <rects>
        <_>
          0 20 8 4 -1.</_>
        <_>
          0 20 4 2 2.</_>
        <_>
          4 22 4 2 2.</_></rects>
      <tilted>0</tilted></_>
    <_>
      <rects>
        <_>
          0 23 20 1 -1.</_>
        <_>
          10 23 10 1 2.</_></rects>
      <tilted>0</tilted></_>
    <_>
      <rects>
        <_>
          0 23 24 1 -1.</_>
        <_>
          12 23 12 1 2.</_></rects>
      <tilted>0</tilted></_>
    <_>
      <rects>
        <_>
          1 1 22 6 -1.</_>
        <_>
          1 4 22 3 2.</_></rects>
      <tilted>0</tilted></_>
    <_>
      <rects>
        <_>
          1 4 21 12 -1.</_>
        <_>
          8 4 7 12 3.</_></rects>
      <tilted>0</tilted></_>
    <_>
      <rects>
        <_>
          1 5 21 14 -1.</_>
        <_>
          8 5 7 14 3.</_></rects>
      <tilted>0</tilted></_>
    <_>
      <rects>
        <_>
          2 0 16 18 -1.</_>
        <_>
          2 6 16 6 3.</_></rects>
      <tilted>0</tilted></_>
    <_>
      <rects>
        <_>
          2 2 7 2 -1.</_>
        <_>
          2 3 7 1 2.</_></rects>
      <tilted>0</tilted></_>
    <_>
      <rects>
        <_>
          2 3 8 2 -1.</_>
        <_>
          2 3 4 1 2.</_>
        <_>
          6 4 4 1 2.</_></rects>
      <tilted>0</tilted></_>
    <_>
      <rects>
        <_>
          2 4 12 18 -1.</_>
        <_>
          2 10 12 6 3.</_></rects>
      <tilted>0</tilted></_>
    <_>
      <rects>
        <_>
          2 5 21 17 -1.</_>
        <_>
          9 5 7 17 3.</_></rects>
      <tilted>0</tilted></_>
    <_>
      <rects>
        <_>
          2 5 22 18 -1.</_>
        <_>
          2 14 22 9 2.</_></rects>
      <tilted>0</tilted></_>
    <_>
      <rects>
        <_>
          2 13 3 1 -1.</_>
        <_>
          3 13 1 1 3.</_></rects>
      <tilted>0</tilted></_>
    <_>
      <rects>
        <_>
          3 0 18 1 -1.</_>
        <_>
          12 0 9 1 2.</_></rects>
      <tilted>0</tilted></_>
    <_>
      <rects>
        <_>
          3 0 14 12 -1.</_>
        <_>
          3 4 14 4 3.</_></rects>
      <tilted>0</tilted></_>
    <_>
      <rects>
        <_>
          3 4 18 19 -1.</_>
        <_>
          9 4 6 19 3.</_></rects>
      <tilted>0</tilted></_>
    <_>
      <rects>
        <_>
          3 6 21 8 -1.</_>
        <_>
          3 10 21 4 2.</_></rects>
      <tilted>0</tilted></_>
    <_>
      <rects>
        <_>
          3 11 6 13 -1.</_>
        <_>
          5 11 2 13 3.</_></rects>
      <tilted>0</tilted></_>
    <_>
      <rects>
        <_>
          3 11 21 2 -1.</_>
        <_>
          10 11 7 2 3.</_></rects>
      <tilted>0</tilted></_>
    <_>
      <rects>
        <_>
          3 13 9 2 -1.</_>
        <_>
          6 13 3 2 3.</_></rects>
      <tilted>0</tilted></_>
    <_>
      <rects>
        <_>
          3 16 12 6 -1.</_>
        <_>
          7 16 4 6 3.</_></rects>
      <tilted>0</tilted></_>
    <_>
      <rects>
        <_>
          3 16 15 8 -1.</_>
        <_>
          3 20 15 4 2.</_></rects>
      <tilted>0</tilted></_>
    <_>
      <rects>
        <_>
          3 23 16 1 -1.</_>
        <_>
          11 23 8 1 2.</_></rects>
      <tilted>0</tilted></_>
    <_>
      <rects>
        <_>
          4 0 16 1 -1.</_>
        <_>
          12 0 8 1 2.</_></rects>
      <tilted>0</tilted></_>
    <_>
      <rects>
        <_>
          4 5 10 15 -1.</_>
        <_>
          9 5 5 15 2.</_></rects>
      <tilted>0</tilted></_>
    <_>
      <rects>
        <_>
          4 10 20 8 -1.</_>
        <_>
          14 10 10 8 2.</_></rects>
      <tilted>0</tilted></_>
    <_>
      <rects>
        <_>
          4 17 3 5 -1.</_>
        <_>
          5 17 1 5 3.</_></rects>
      <tilted>0</tilted></_>
    <_>
      <rects>
        <_>
          4 18 10 6 -1.</_>
        <_>
          4 20 10 2 3.</_></rects>
      <tilted>0</tilted></_>
    <_>
      <rects>
        <_>
          4 21 3 3 -1.</_>
        <_>
          5 21 1 3 3.</_></rects>
      <tilted>0</tilted></_>
    <_>
      <rects>
        <_>
          5 0 4 18 -1.</_>
        <_>
          5 0 2 9 2.</_>
        <_>
          7 9 2 9 2.</_></rects>
      <tilted>0</tilted></_>
    <_>
      <rects>
        <_>
          5 8 9 5 -1.</_>
        <_>
          8 8 3 5 3.</_></rects>
      <tilted>0</tilted></_>
    <_>
      <rects>
        <_>
          5 14 15 3 -1.</_>
        <_>
          10 14 5 3 3.</_></rects>
      <tilted>0</tilted></_>
    <_>
      <rects>
        <_>
          6 0 15 12 -1.</_>
        <_>
          6 4 15 4 3.</_></rects>
      <tilted>0</tilted></_>
    <_>
      <rects>
        <_>
          6 3 16 12 -1.</_>
        <_>
          6 9 16 6 2.</_></rects>
      <tilted>0</tilted></_>
    <_>
      <rects>
        <_>
          6 4 14 2 -1.</_>
        <_>
          6 4 7 1 2.</_>
        <_>
          13 5 7 1 2.</_></rects>
      <tilted>0</tilted></_>
    <_>
      <rects>
        <_>
          6 6 12 14 -1.</_>
        <_>
          6 13 12 7 2.</_></rects>
      <tilted>0</tilted></_>
    <_>
      <rects>
        <_>
          6 10 6 1 -1.</_>
        <_>
          8 10 2 1 3.</_></rects>
      <tilted>0</tilted></_>
    <_>
      <rects>
        <_>
          6 10 12 9 -1.</_>
        <_>
          10 10 4 9 3.</_></rects>
      <tilted>0</tilted></_>
    <_>
      <rects>
        <_>
          6 14 12 7 -1.</_>
        <_>
          10 14 4 7 3.</_></rects>
      <tilted>0</tilted></_>
    <_>
      <rects>
        <_>
          6 17 9 2 -1.</_>
        <_>
          6 18 9 1 2.</_></rects>
      <tilted>0</tilted></_>
    <_>
      <rects>
        <_>
          6 19 2 2 -1.</_>
        <_>
          7 19 1 2 2.</_></rects>
      <tilted>0</tilted></_>
    <_>
      <rects>
        <_>
          7 0 12 15 -1.</_>
        <_>
          7 5 12 5 3.</_></rects>
      <tilted>0</tilted></_>
    <_>
      <rects>
        <_>
          7 1 6 4 -1.</_>
        <_>
          7 1 3 2 2.</_>
        <_>
          10 3 3 2 2.</_></rects>
      <tilted>0</tilted></_>
    <_>
      <rects>
        <_>
          7 4 16 11 -1.</_>
        <_>
          15 4 8 11 2.</_></rects>
      <tilted>0</tilted></_>
    <_>
      <rects>
        <_>
          7 5 3 12 -1.</_>
        <_>
          7 11 3 6 2.</_></rects>
      <tilted>0</tilted></_>
    <_>
      <rects>
        <_>
          7 9 6 5 -1.</_>
        <_>
          9 9 2 5 3.</_></rects>
      <tilted>0</tilted></_>
    <_>
      <rects>
        <_>
          7 10 12 6 -1.</_>
        <_>
          7 12 12 2 3.</_></rects>
      <tilted>0</tilted></_>
    <_>
      <rects>
        <_>
          7 14 9 4 -1.</_>
        <_>
          10 14 3 4 3.</_></rects>
      <tilted>0</tilted></_>
    <_>
      <rects>
        <_>
          8 8 2 2 -1.</_>
        <_>
          9 8 1 2 2.</_></rects>
      <tilted>0</tilted></_>
    <_>
      <rects>
        <_>
          8 9 4 2 -1.</_>
        <_>
          8 10 4 1 2.</_></rects>
      <tilted>0</tilted></_>
    <_>
      <rects>
        <_>
          8 10 9 13 -1.</_>
        <_>
          11 10 3 13 3.</_></rects>
      <tilted>0</tilted></_>
    <_>
      <rects>
        <_>
          8 16 12 2 -1.</_>
        <_>
          8 17 12 1 2.</_></rects>
      <tilted>0</tilted></_>
    <_>
      <rects>
        <_>
          8 22 12 2 -1.</_>
        <_>
          12 22 4 2 3.</_></rects>
      <tilted>0</tilted></_>
    <_>
      <rects>
        <_>
          9 4 3 4 -1.</_>
        <_>
          10 4 1 4 3.</_></rects>
      <tilted>0</tilted></_>
    <_>
      <rects>
        <_>
          9 4 12 9 -1.</_>
        <_>
          15 4 6 9 2.</_></rects>
      <tilted>0</tilted></_>
    <_>
      <rects>
        <_>
          9 5 1 15 -1.</_>
        <_>
          9 10 1 5 3.</_></rects>
      <tilted>0</tilted></_>
    <_>
      <rects>
        <_>
          9 6 6 12 -1.</_>
        <_>
          9 10 6 4 3.</_></rects>
      <tilted>0</tilted></_>
    <_>
      <rects>
        <_>
          9 8 1 16 -1.</_>
        <_>
          9 16 1 8 2.</_></rects>
      <tilted>0</tilted></_>
    <_>
      <rects>
        <_>
          9 10 2 2 -1.</_>
        <_>
          10 10 1 2 2.</_></rects>
      <tilted>0</tilted></_>
    <_>
      <rects>
        <_>
          9 12 2 1 -1.</_>
        <_>
          10 12 1 1 2.</_></rects>
      <tilted>0</tilted></_>
    <_>
      <rects>
        <_>
          9 12 6 11 -1.</_>
        <_>
          11 12 2 11 3.</_></rects>
      <tilted>0</tilted></_>
    <_>
      <rects>
        <_>
          10 2 6 20 -1.</_>
        <_>
          10 2 3 10 2.</_>
        <_>
          13 12 3 10 2.</_></rects>
      <tilted>0</tilted></_>
    <_>
      <rects>
        <_>
          10 10 2 4 -1.</_>
        <_>
          11 10 1 4 2.</_></rects>
      <tilted>0</tilted></_>
    <_>
      <rects>
        <_>
          10 11 6 2 -1.</_>
        <_>
          10 12 6 1 2.</_></rects>
      <tilted>0</tilted></_>
    <_>
      <rects>
        <_>
          10 20 6 4 -1.</_>
        <_>
          10 22 6 2 2.</_></rects>
      <tilted>0</tilted></_>
    <_>
      <rects>
        <_>
          11 0 1 2 -1.</_>
        <_>
          11 1 1 1 2.</_></rects>
      <tilted>0</tilted></_>
    <_>
      <rects>
        <_>
          11 1 10 17 -1.</_>
        <_>
          16 1 5 17 2.</_></rects>
      <tilted>0</tilted></_>
    <_>
      <rects>
        <_>
          11 2 6 12 -1.</_>
        <_>
          11 2 3 6 2.</_>
        <_>
          14 8 3 6 2.</_></rects>
      <tilted>0</tilted></_>
    <_>
      <rects>
        <_>
          11 3 1 18 -1.</_>
        <_>
          11 9 1 6 3.</_></rects>
      <tilted>0</tilted></_>
    <_>
      <rects>
        <_>
          11 6 3 7 -1.</_>
        <_>
          12 6 1 7 3.</_></rects>
      <tilted>0</tilted></_>
    <_>
      <rects>
        <_>
          11 7 12 8 -1.</_>
        <_>
          17 7 6 8 2.</_></rects>
      <tilted>0</tilted></_>
    <_>
      <rects>
        <_>
          11 10 3 2 -1.</_>
        <_>
          11 11 3 1 2.</_></rects>
      <tilted>0</tilted></_>
    <_>
      <rects>
        <_>
          11 11 2 2 -1.</_>
        <_>
          12 11 1 2 2.</_></rects>
      <tilted>0</tilted></_>
    <_>
      <rects>
        <_>
          11 11 4 1 -1.</_>
        <_>
          13 11 2 1 2.</_></rects>
      <tilted>0</tilted></_>
    <_>
      <rects>
        <_>
          11 15 3 2 -1.</_>
        <_>
          12 15 1 2 3.</_></rects>
      <tilted>0</tilted></_>
    <_>
      <rects>
        <_>
          11 17 6 6 -1.</_>
        <_>
          14 17 3 6 2.</_></rects>
      <tilted>0</tilted></_>
    <_>
      <rects>
        <_>
          11 22 4 2 -1.</_>
        <_>
          11 22 2 1 2.</_>
        <_>
          13 23 2 1 2.</_></rects>
      <tilted>0</tilted></_>
    <_>
      <rects>
        <_>
          12 0 12 1 -1.</_>
        <_>
          18 0 6 1 2.</_></rects>
      <tilted>0</tilted></_>
    <_>
      <rects>
        <_>
          12 5 4 2 -1.</_>
        <_>
          12 5 2 1 2.</_>
        <_>
          14 6 2 1 2.</_></rects>
      <tilted>0</tilted></_>
    <_>
      <rects>
        <_>
          12 10 2 1 -1.</_>
        <_>
          13 10 1 1 2.</_></rects>
      <tilted>0</tilted></_>
    <_>
      <rects>
        <_>
          12 11 12 1 -1.</_>
        <_>
          18 11 6 1 2.</_></rects>
      <tilted>0</tilted></_>
    <_>
      <rects>
        <_>
          12 12 3 1 -1.</_>
        <_>
          13 12 1 1 3.</_></rects>
      <tilted>0</tilted></_>
    <_>
      <rects>
        <_>
          12 17 6 4 -1.</_>
        <_>
          14 17 2 4 3.</_></rects>
      <tilted>0</tilted></_>
    <_>
      <rects>
        <_>
          13 10 2 2 -1.</_>
        <_>
          13 10 1 1 2.</_>
        <_>
          14 11 1 1 2.</_></rects>
      <tilted>0</tilted></_>
    <_>
      <rects>
        <_>
          13 14 2 1 -1.</_>
        <_>
          14 14 1 1 2.</_></rects>
      <tilted>0</tilted></_>
    <_>
      <rects>
        <_>
          13 23 6 1 -1.</_>
        <_>
          15 23 2 1 3.</_></rects>
      <tilted>0</tilted></_>
    <_>
      <rects>
        <_>
          14 0 4 15 -1.</_>
        <_>
          14 5 4 5 3.</_></rects>
      <tilted>0</tilted></_>
    <_>
      <rects>
        <_>
          14 4 8 15 -1.</_>
        <_>
          14 9 8 5 3.</_></rects>
      <tilted>0</tilted></_>
    <_>
      <rects>
        <_>
          14 7 1 14 -1.</_>
        <_>
          14 14 1 7 2.</_></rects>
      <tilted>0</tilted></_>
    <_>
      <rects>
        <_>
          14 7 2 6 -1.</_>
        <_>
          14 9 2 2 3.</_></rects>
      <tilted>0</tilted></_>
    <_>
      <rects>
        <_>
          14 7 6 4 -1.</_>
        <_>
          14 9 6 2 2.</_></rects>
      <tilted>0</tilted></_>
    <_>
      <rects>
        <_>
          14 15 1 6 -1.</_>
        <_>
          14 18 1 3 2.</_></rects>
      <tilted>0</tilted></_>
    <_>
      <rects>
        <_>
          14 23 6 1 -1.</_>
        <_>
          16 23 2 1 3.</_></rects>
      <tilted>0</tilted></_>
    <_>
      <rects>
        <_>
          15 9 2 6 -1.</_>
        <_>
          15 9 1 3 2.</_>
        <_>
          16 12 1 3 2.</_></rects>
      <tilted>0</tilted></_>
    <_>
      <rects>
        <_>
          15 15 2 2 -1.</_>
        <_>
          15 15 1 1 2.</_>
        <_>
          16 16 1 1 2.</_></rects>
      <tilted>0</tilted></_>
    <_>
      <rects>
        <_>
          15 21 6 3 -1.</_>
        <_>
          17 21 2 3 3.</_></rects>
      <tilted>0</tilted></_>
    <_>
      <rects>
        <_>
          15 22 9 2 -1.</_>
        <_>
          18 22 3 2 3.</_></rects>
      <tilted>0</tilted></_>
    <_>
      <rects>
        <_>
          15 23 9 1 -1.</_>
        <_>
          18 23 3 1 3.</_></rects>
      <tilted>0</tilted></_>
    <_>
      <rects>
        <_>
          16 1 8 23 -1.</_>
        <_>
          20 1 4 23 2.</_></rects>
      <tilted>0</tilted></_>
    <_>
      <rects>
        <_>
          16 4 8 14 -1.</_>
        <_>
          20 4 4 14 2.</_></rects>
      <tilted>0</tilted></_>
    <_>
      <rects>
        <_>
          16 15 3 6 -1.</_>
        <_>
          16 17 3 2 3.</_></rects>
      <tilted>0</tilted></_>
    <_>
      <rects>
        <_>
          17 5 2 12 -1.</_>
        <_>
          18 5 1 12 2.</_></rects>
      <tilted>0</tilted></_>
    <_>
      <rects>
        <_>
          17 7 4 9 -1.</_>
        <_>
          17 10 4 3 3.</_></rects>
      <tilted>0</tilted></_>
    <_>
      <rects>
        <_>
          17 17 5 6 -1.</_>
        <_>
          17 20 5 3 2.</_></rects>
      <tilted>0</tilted></_>
    <_>
      <rects>
        <_>
          18 12 6 10 -1.</_>
        <_>
          21 12 3 10 2.</_></rects>
      <tilted>0</tilted></_>
    <_>
      <rects>
        <_>
          20 4 4 4 -1.</_>
        <_>
          20 4 2 2 2.</_>
        <_>
          22 6 2 2 2.</_></rects>
      <tilted>0</tilted></_>
    <_>
      <rects>
        <_>
          20 17 4 2 -1.</_>
        <_>
          20 17 2 1 2.</_>
        <_>
          22 18 2 1 2.</_></rects>
      <tilted>0</tilted></_>
    <_>
      <rects>
        <_>
          21 0 2 1 -1.</_>
        <_>
          22 0 1 1 2.</_></rects>
      <tilted>0</tilted></_>
    <_>
      <rects>
        <_>
          21 2 3 6 -1.</_>
        <_>
          21 4 3 2 3.</_></rects>
      <tilted>0</tilted></_>
    <_>
      <rects>
        <_>
          21 5 3 4 -1.</_>
        <_>
          21 7 3 2 2.</_></rects>
      <tilted>0</tilted></_>
    <_>
      <rects>
        <_>
          22 0 1 2 -1.</_>
        <_>
          22 1 1 1 2.</_></rects>
      <tilted>0</tilted></_>
    <_>
      <rects>
        <_>
          23 0 1 22 -1.</_>
        <_>
          23 11 1 11 2.</_></rects>
      <tilted>0</tilted></_>
    <_>
      <rects>
        <_>
          23 0 1 24 -1.</_>
        <_>
          23 12 1 12 2.</_></rects>
      <tilted>0</tilted></_>
    <_>
      <rects>
        <_>
          23 1 1 22 -1.</_>
        <_>
          23 12 1 11 2.</_></rects>
      <tilted>0</tilted></_>
    <_>
      <rects>
        <_>
          23 4 1 3 -1.</_>
        <_>
          23 5 1 1 3.</_></rects>
      <tilted>0</tilted></_>
    <_>
      <rects>
        <_>
          23 8 1 12 -1.</_>
        <_>
          23 12 1 4 3.</_></rects>
      <tilted>0</tilted></_>
    <_>
      <rects>
        <_>
          23 8 1 12 -1.</_>
        <_>
          23 14 1 6 2.</_></rects>
      <tilted>0</tilted></_>
    <_>
      <rects>
        <_>
          23 9 1 4 -1.</_>
        <_>
          23 11 1 2 2.</_></rects>
      <tilted>0</tilted></_>
    <_>
      <rects>
        <_>
          23 9 1 6 -1.</_>
        <_>
          23 11 1 2 3.</_></rects>
      <tilted>0</tilted></_></features></cascade>
</opencv_storage>
